digraph Tree {
node [shape=box, style="filled", color="black"] ;
0 [label="X[2] <= 2.35\ngini = 0.664\nsamples = 105\nvalue = [34, 32, 39]", fillcolor="#f6f1fd"] ;
1 [label="gini = 0.0\nsamples = 34\nvalue = [34, 0, 0]", fillcolor="#e58139"] ;
0 -> 1 [labeldistance=2.5, labelangle=45, headlabel="True"] ;
2 [label="X[2] <= 4.95\ngini = 0.495\nsamples = 71\nvalue = [0, 32, 39]", fillcolor="#e8dbfa"] ;
0 -> 2 [labeldistance=2.5, labelangle=-45, headlabel="False"] ;
3 [label="X[3] <= 1.65\ngini = 0.161\nsamples = 34\nvalue = [0, 31, 3]", fillcolor="#4ce88d"] ;
2 -> 3 ;
4 [label="gini = 0.0\nsamples = 30\nvalue = [0, 30, 0]", fillcolor="#39e581"] ;
3 -> 4 ;
5 [label="X[1] <= 3.1\ngini = 0.375\nsamples = 4\nvalue = [0, 1, 3]", fillcolor="#ab7bee"] ;
3 -> 5 ;
6 [label="gini = 0.0\nsamples = 3\nvalue = [0, 0, 3]", fillcolor="#8139e5"] ;
5 -> 6 ;
7 [label="gini = 0.0\nsamples = 1\nvalue = [0, 1, 0]", fillcolor="#39e581"] ;
5 -> 7 ;
8 [label="X[3] <= 1.75\ngini = 0.053\nsamples = 37\nvalue = [0, 1, 36]", fillcolor="#843ee6"] ;
2 -> 8 ;
9 [label="X[3] <= 1.65\ngini = 0.375\nsamples = 4\nvalue = [0, 1, 3]", fillcolor="#ab7bee"] ;
8 -> 9 ;
10 [label="gini = 0.0\nsamples = 3\nvalue = [0, 0, 3]", fillcolor="#8139e5"] ;
9 -> 10 ;
11 [label="gini = 0.0\nsamples = 1\nvalue = [0, 1, 0]", fillcolor="#39e581"] ;
9 -> 11 ;
12 [label="gini = 0.0\nsamples = 33\nvalue = [0, 0, 33]", fillcolor="#8139e5"] ;
8 -> 12 ;
}